/*!
 * The following copyright notice may not be removed under any circumstances.
 * 
 * Copyright:
 * Copyright (c) 2007 by Yann Le Coroller. All rights reserved.
 * 
 * Description:
 * Copyright (c) 2007 by Yann Le Coroller. All rights reserved.
 * 
 * Manufacturer:
 * Yann Le Coroller
 * 
 * Designer:
 * Yann Le Coroller
 * 
 * Vendor URL:
 * http://www.kub.fr/
 */
Cufon.registerFont({"w":556,"face":{"font-family":"Alte Haas Grotesk","font-weight":400,"font-stretch":"normal","units-per-em":"1000","panose-1":"2 0 5 3 0 0 0 2 0 4","ascent":"800","descent":"-200","cap-height":"1","bbox":"-12.5094 -794.708 908.721 213","underline-thickness":"50","underline-position":"-75","unicode-range":"U+0020-U+007E"},"glyphs":{" ":{"w":278},"!":{"d":"99,-292r-16,-244r0,-153v2,-31,33,-23,63,-25v28,-2,31,18,31,46r-2,193r-21,257v-4,21,-7,35,-30,32v-32,-13,-23,-70,-25,-106xm156,-1v-38,-1,-85,11,-82,-31v3,-35,-11,-78,37,-78v37,0,73,-10,73,42v0,30,6,69,-28,67","w":259},"\"":{"d":"109,-676v-6,-38,36,-47,61,-31v12,12,5,45,6,66r0,152v6,35,-41,40,-60,23v-16,-52,3,-141,-7,-210xm253,-701v15,-24,75,-17,64,23r-1,189v6,36,-41,40,-60,23v-16,-52,0,-139,-6,-210v0,-11,0,-19,3,-25","w":426},"#":{"d":"454,-492v39,1,78,-1,67,46v-1,45,-90,-3,-99,42v-7,38,-25,95,-7,127v27,13,85,-14,78,48v-6,49,-97,-8,-105,54v-7,55,-11,118,-28,166v-13,15,-66,14,-60,-19v10,-53,19,-107,20,-163v-9,-26,-54,-15,-86,-15v-66,0,-35,93,-56,151v3,40,-22,67,-63,50v-24,-51,23,-131,9,-191v-17,-25,-115,14,-86,-64v13,-36,114,20,109,-54v7,-30,9,-60,11,-93v-6,-42,-88,12,-97,-45v-10,-62,78,-23,108,-50v21,-47,14,-128,33,-181v12,-19,67,-21,62,15r-20,146v-7,45,50,32,90,32v59,0,33,-87,51,-140v-4,-44,22,-84,67,-59v15,55,-19,119,-15,182v3,9,8,14,17,15xm352,-398v1,-42,-64,-22,-104,-25v-35,13,-22,68,-33,107v-7,26,1,47,32,44v41,-3,97,12,93,-41"},"$":{"d":"234,-332v-124,-22,-227,-112,-175,-261v25,-72,79,-117,163,-133v15,-2,32,-13,28,-29v-9,-36,39,-54,53,-26v4,19,-1,50,25,55v92,18,144,83,168,170v9,32,-48,27,-71,19v-28,-39,-40,-92,-97,-103v-27,-5,-24,36,-23,63v2,55,-6,122,5,168v29,30,90,26,124,54v93,36,117,208,45,289v-38,42,-89,68,-156,81v-39,8,10,91,-55,81v-35,-5,4,-76,-42,-83v-113,-18,-178,-88,-196,-204v-6,-34,52,-30,72,-19v19,29,19,72,44,94v25,22,47,48,89,48v17,0,17,-21,16,-40r0,-193v0,-16,-5,-26,-17,-31xm193,-438v19,12,57,26,58,-8r-2,-185v-4,-25,-45,-12,-56,-2v-55,22,-80,128,-30,174v9,8,19,15,30,21xm321,-66v101,8,152,-137,83,-201v-20,-19,-50,-39,-86,-38v-20,6,-13,41,-13,64r1,150v1,13,5,21,15,25"},"%":{"d":"794,-704v-54,88,-117,166,-177,249r-326,452v-10,24,-52,30,-81,19v-14,-15,8,-35,16,-47r496,-681v15,-11,71,-18,72,8xm223,-311v-174,-17,-183,-395,18,-395v154,0,198,140,161,283v-19,75,-81,121,-179,112xm271,-652v-135,-23,-136,238,-55,280v117,61,154,-142,103,-243v-10,-20,-25,-33,-48,-37xm685,-377v138,-46,233,51,223,192v-7,107,-41,184,-146,195v-157,17,-207,-152,-161,-295v15,-46,38,-77,84,-92xm700,-58v74,46,133,-25,133,-116v0,-78,-8,-164,-91,-159v-99,6,-93,172,-63,249v5,11,12,19,21,26","w":1000},"&":{"d":"209,-699v128,-47,283,31,236,181v-17,53,-58,84,-97,116v-45,37,27,75,43,108v18,14,31,54,59,50v30,-26,-4,-111,82,-90v46,39,-19,124,-21,174v29,55,80,88,112,140v6,32,-50,17,-82,18v-36,-16,-45,-60,-82,-74v-11,-4,-18,9,-25,15v-56,73,-221,89,-316,38v-80,-42,-113,-208,-40,-285v28,-30,58,-54,95,-75v23,-7,14,-37,2,-50v-38,-40,-71,-116,-43,-189v14,-36,40,-63,77,-77xm363,-591v-29,-82,-187,-47,-154,51v11,34,30,57,49,82v20,26,51,-4,66,-16v28,-22,56,-69,39,-117xm218,-68v78,23,148,-18,181,-65v13,-35,-24,-57,-43,-80r-97,-117v-10,-13,-33,-4,-43,2v-55,33,-117,95,-86,183v15,43,43,64,88,77","w":630},"'":{"d":"108,-700v15,-24,76,-16,65,24r-1,188v6,36,-42,40,-61,23v-14,-54,0,-140,-6,-209v-1,-11,0,-20,3,-26","w":278},"(":{"d":"194,178v-142,-171,-199,-554,-68,-783v24,-42,43,-86,75,-119v9,-9,57,-14,52,10v-119,177,-159,542,-57,771v19,42,43,77,58,119v7,18,-21,21,-37,17v-11,-3,-19,-9,-23,-15","w":259},")":{"d":"7,174v116,-171,157,-532,60,-756r-60,-130v-9,-22,25,-22,41,-16v163,156,214,559,86,792v-22,40,-44,80,-69,115v-8,11,-34,19,-53,11v-6,-2,-8,-8,-5,-16","w":259},"*":{"d":"163,-711v86,-11,-16,141,94,90v15,-7,43,-22,55,-3v29,50,-60,41,-81,73v-2,40,76,74,24,106v-42,1,-43,-57,-76,-70v-43,3,-36,81,-87,68v-43,-34,27,-64,26,-104v-16,-27,-63,-21,-83,-45v-8,-19,5,-41,30,-35v25,6,52,31,78,16v17,-21,-10,-80,20,-96","w":352},"+":{"d":"283,-504v27,-4,49,0,49,28r0,158v-2,30,22,32,51,32r142,0v30,-3,31,43,17,60v-36,14,-102,6,-153,6v-30,0,-57,-1,-57,31r0,159v3,28,-26,31,-50,27v-19,-3,-16,-31,-16,-54v0,-51,6,-113,-6,-154v-43,-21,-126,-10,-190,-10v-28,0,-27,-43,-14,-59v36,-14,102,-6,153,-6v30,0,57,2,57,-32r0,-127v-1,-24,-4,-56,17,-59","w":600},",":{"d":"82,-34v1,-34,-8,-77,27,-76v41,0,91,-9,82,40v4,104,-11,189,-95,206v-25,-14,-2,-51,14,-57v21,-15,50,-80,-2,-80v-19,-1,-26,-11,-26,-33","w":278},"-":{"d":"49,-276v0,-26,4,-40,27,-40r220,-1v29,-1,44,9,42,39v8,49,-40,40,-81,40r-133,0v-36,0,-75,11,-75,-38","w":389},".":{"d":"82,-54v1,-29,-2,-56,28,-56v42,0,82,-12,82,48v0,29,4,61,-26,61r-52,0v-31,3,-34,-24,-32,-53","w":278},"\/":{"d":"268,-704v2,-28,52,-36,71,-17v5,31,-15,56,-27,85r-247,626v-3,26,-55,36,-70,14v-1,-39,21,-69,35,-104","w":333},"0":{"d":"241,-706v295,-41,307,312,250,563v-23,103,-111,163,-246,152v-218,-17,-224,-297,-192,-514v16,-111,70,-184,188,-201xm316,-628v-213,-45,-188,247,-173,435v10,125,186,177,245,66v46,-86,44,-257,25,-374v-10,-62,-38,-115,-97,-127"},"1":{"d":"293,-698v17,-17,62,-15,62,18r0,631v16,51,-46,61,-79,37v-9,-26,-4,-72,-4,-108r0,-356v2,-54,-77,-28,-125,-33v-25,-2,-53,3,-57,-19v-4,-29,3,-49,35,-49v93,0,144,-48,168,-121"},"2":{"d":"109,-460v-47,10,-73,-7,-61,-63v24,-111,90,-173,215,-185v203,-19,291,211,175,352v-85,103,-252,126,-307,255v-16,37,48,27,84,27r231,0v34,-4,43,16,40,49v-4,39,-63,24,-103,24r-340,-1v-30,-11,-7,-62,-2,-86v47,-215,363,-181,363,-418v0,-94,-80,-147,-177,-123v-59,14,-89,66,-97,135v-2,20,-5,31,-21,34"},"3":{"d":"388,-543v-8,-100,-168,-117,-224,-48v-21,26,-28,65,-40,101v-15,16,-85,19,-76,-23v23,-114,79,-191,206,-195v132,-4,211,49,224,168v9,76,-33,116,-73,152v-12,22,23,28,37,39v73,37,87,193,33,262v-54,109,-292,129,-383,37v-33,-33,-55,-81,-61,-140v-4,-37,55,-32,78,-20v15,34,18,81,46,103v40,60,178,56,223,4v54,-35,53,-158,0,-196v-26,-19,-63,-39,-112,-37v-27,0,-50,1,-47,-29v-5,-32,15,-39,46,-39v82,0,131,-51,123,-139"},"4":{"d":"419,-300v-21,113,111,19,96,101v8,64,-96,1,-96,67r0,104v0,24,-16,28,-40,28v-66,0,-29,-83,-39,-144v-5,-31,-46,-22,-79,-22r-194,1v-51,11,-45,-70,-26,-97r307,-436v30,-18,82,-12,71,34r0,364xm284,-239v37,3,58,-2,58,-42r-2,-257v3,-28,-24,-26,-33,-5r-186,275v-12,17,2,30,25,30"},"5":{"d":"99,-569v16,-46,-3,-126,48,-126r283,0v42,-11,51,40,32,67v-11,10,-41,5,-60,6r-197,1v-48,23,-31,106,-51,167v-1,35,35,10,51,4v56,-23,146,-8,192,13v117,54,143,276,49,377v-70,75,-250,93,-333,24v-35,-29,-67,-69,-73,-128v-4,-35,59,-30,78,-15v21,78,93,133,196,111v105,-22,134,-184,69,-270v-43,-57,-172,-72,-225,-16v-18,19,-54,38,-89,23v-22,-55,20,-132,23,-197v1,-14,3,-28,7,-41"},"6":{"d":"145,-391v54,-71,220,-81,297,-17v64,53,100,188,56,288v-34,78,-102,125,-204,130v-254,15,-287,-277,-236,-506v26,-118,91,-207,233,-212v122,-4,190,55,205,162v-9,28,-81,23,-86,-9v-10,-65,-97,-98,-169,-69v-80,33,-114,117,-114,220v0,14,7,18,18,13xm227,-75v136,52,250,-81,189,-225v-22,-52,-64,-81,-140,-81v-156,0,-179,257,-49,306"},"7":{"d":"65,-620v-25,-10,-22,-75,12,-75r387,0v74,-3,40,88,7,110v-116,146,-204,319,-232,552v-3,24,-14,35,-44,33v-25,-1,-54,1,-51,-27v27,-250,136,-418,258,-573v-1,-29,-53,-17,-84,-17r-240,-1v-5,0,-10,-1,-13,-2"},"8":{"d":"72,-480v-30,-135,59,-224,192,-227v128,-3,209,51,222,165v9,77,-37,118,-76,156v-2,21,26,26,38,37v65,38,77,156,47,239v-45,127,-280,151,-389,66v-67,-52,-91,-222,-20,-285v15,-21,44,-28,57,-51v-8,-24,-31,-31,-45,-51v-10,-15,-22,-30,-26,-49xm395,-549v-13,-110,-222,-111,-240,7v-22,141,197,181,235,59v5,-16,7,-46,5,-66xm133,-162v36,152,311,121,291,-52v-17,-148,-262,-156,-290,-23v-4,19,-6,54,-1,75"},"9":{"d":"168,-689v217,-78,341,88,341,315v0,242,-101,449,-345,367v-62,-21,-103,-70,-110,-147v10,-29,88,-21,86,12v19,90,185,104,232,26v28,-47,51,-115,48,-187v-16,-23,-33,15,-48,22v-57,52,-187,41,-250,0v-95,-61,-116,-276,-29,-355v17,-24,48,-43,75,-53xm152,-375v89,129,307,23,249,-154v-25,-77,-101,-126,-195,-95v-81,26,-107,172,-54,249"},":":{"d":"192,-494v0,46,14,98,-45,87v-34,2,-69,4,-65,-36v3,-34,-6,-73,28,-73v31,1,82,-9,82,22xm104,-109v35,-2,90,-13,88,29v-2,41,12,90,-44,79v-33,2,-72,5,-66,-35v4,-31,-8,-71,22,-73","w":278},";":{"d":"166,-407v-40,-2,-86,13,-82,-32v3,-32,-10,-77,26,-77v27,1,73,-8,80,15v2,29,16,97,-24,94xm108,-110v42,-1,85,-11,85,40v0,101,-12,190,-96,206v-23,-11,-6,-48,11,-53v18,-16,45,-54,23,-79v-18,-9,-49,-1,-47,-32v2,-35,-10,-81,24,-82","w":278},"<":{"d":"368,-428v57,-22,112,-63,177,-72v17,16,9,59,-13,64r-371,169v-20,8,-5,30,8,32r358,163v24,5,32,36,23,61v-24,18,-54,-10,-75,-19r-407,-184v-26,-6,-27,-65,-2,-76","w":600},"=":{"d":"99,-320v-31,2,-53,-1,-50,-35v2,-21,8,-30,27,-31r452,0v30,-2,28,49,13,62v-8,6,-22,4,-35,4r-407,0xm49,-156v-1,-19,10,-28,25,-28r454,1v28,-1,29,44,15,60v-8,7,-24,5,-38,5r-403,0v-33,5,-59,-4,-53,-38","w":600},">":{"d":"64,-440v-31,-14,-21,-75,19,-57r453,207v26,9,22,65,-2,76r-450,204v-24,16,-47,-9,-34,-39v5,-22,34,-27,52,-35r344,-158v19,-35,-54,-40,-79,-59","w":600},"?":{"d":"194,-715v173,-61,344,63,281,254v-34,103,-161,123,-161,254v0,33,-25,37,-59,33v-45,-5,-20,-90,-7,-119v42,-98,194,-148,136,-302v-24,-64,-144,-77,-196,-29v-31,29,-43,78,-56,125v-22,14,-85,17,-77,-27v18,-96,59,-161,139,-189xm216,-54v0,-33,3,-56,34,-56v45,0,77,-4,77,56v0,26,1,54,-28,54r-51,0v-32,3,-32,-24,-32,-54"},"@":{"d":"709,-129v-75,116,-286,181,-451,109v-152,-66,-266,-264,-192,-469v58,-161,220,-275,445,-229v172,36,300,227,214,421v-35,80,-101,158,-213,161v-38,1,-41,-35,-64,-48v-44,17,-72,58,-140,50v-117,-14,-144,-160,-101,-271v38,-96,121,-190,252,-161v25,6,44,24,57,44v34,31,30,-53,84,-28v25,29,-10,76,-17,112v-14,73,-47,135,-59,213v-5,35,34,40,59,24v89,-57,135,-240,66,-351v-54,-87,-178,-157,-316,-114v-141,44,-239,155,-222,346v16,188,175,320,391,271v68,-15,117,-54,159,-100v17,-18,69,-12,48,20xm370,-202v82,-33,126,-107,132,-212v5,-99,-132,-114,-176,-45v-59,48,-107,222,-4,256v17,5,33,7,48,1","w":800},"A":{"d":"386,-686r258,660v9,34,-33,23,-64,25v-37,2,-39,-29,-48,-53r-52,-141v-8,-16,-25,-21,-50,-21r-230,0v-38,-1,-41,32,-51,59r-53,139v-9,23,-61,20,-86,12v-13,-9,0,-34,4,-44r248,-636v6,-38,80,-32,112,-20v5,4,9,11,12,20xm370,-294v26,-1,77,7,64,-28r-102,-278v-30,-13,-36,42,-45,67r-76,209v-11,30,23,30,52,30r107,0","w":648},"B":{"d":"344,-713v162,-12,289,52,258,219v-10,53,-43,78,-76,107v-10,18,21,26,32,32v66,35,100,137,65,226v-31,79,-100,129,-208,128r-295,0v-33,4,-43,-10,-43,-43r0,-643v0,-17,11,-26,27,-26r240,0xm200,-635v-31,-1,-33,32,-30,64v3,50,-8,115,6,155v42,24,129,3,199,10v107,9,180,-96,119,-187v-44,-66,-187,-37,-294,-42xm170,-146v-2,41,-1,67,43,67v153,0,364,32,327,-162v-23,-117,-202,-82,-340,-87v-33,-1,-30,36,-30,69r0,113","w":685},"C":{"d":"518,-12v-348,143,-589,-231,-425,-552v49,-96,136,-162,275,-165v167,-4,266,72,301,203v9,34,-41,29,-71,26v-28,-3,-25,-39,-39,-57v-37,-79,-161,-111,-270,-78v-161,49,-192,353,-89,491v46,62,157,106,256,70v73,-27,113,-82,128,-166v-1,-35,56,-32,85,-23v20,19,1,57,-5,79v-22,80,-73,142,-146,172","w":722},"D":{"d":"322,-713v249,-6,364,152,339,407v-19,195,-123,305,-338,305r-200,0v-44,7,-45,-23,-45,-64r0,-617v-1,-21,8,-31,27,-31r217,0xm248,-79r121,-2v178,-15,234,-216,187,-403v-25,-101,-102,-152,-232,-151r-122,0v-28,-1,-31,21,-31,51r1,480v0,35,44,26,76,25","w":704},"E":{"d":"191,-1v-47,-6,-113,25,-113,-45r0,-642v0,-17,11,-25,27,-25r413,0v32,-2,51,0,51,37v0,37,-15,41,-50,41r-305,-1v-40,-4,-43,20,-43,58r0,102v-1,35,-7,70,37,70r312,2v33,-1,30,67,6,74r-281,2v-43,-3,-85,-2,-74,50r0,151v-12,64,54,48,109,48r272,1v31,5,30,77,-6,77r-355,0","w":611},"F":{"d":"499,-382v0,60,-27,54,-81,54r-206,0v-48,-6,-42,38,-41,81r0,172v2,40,8,84,-46,74v-69,14,-47,-70,-47,-129r0,-550v-1,-21,8,-33,28,-33r412,0v24,0,27,16,27,41v0,34,-18,37,-52,37r-285,-1v-35,-4,-37,24,-37,58r1,147v0,31,41,25,71,25r180,0v30,0,76,-8,76,24","w":574},"G":{"d":"45,-311v-20,-282,159,-471,446,-405v103,24,172,92,193,202v-3,33,-87,28,-92,-1v-23,-122,-204,-168,-327,-105v-134,68,-167,345,-66,468v44,53,98,95,195,90v129,-7,210,-78,218,-208v2,-29,-29,-26,-58,-26r-135,0v-29,2,-35,-14,-35,-41v0,-48,45,-37,90,-38r152,0v41,-3,80,-2,70,48r0,300v5,31,-46,33,-59,14v-13,-18,-13,-75,-45,-52v-65,75,-231,107,-346,54v-113,-52,-190,-149,-201,-300","w":759},"H":{"d":"120,-1v-37,6,-41,-16,-41,-51r-1,-631v-1,-20,10,-29,28,-30v32,-1,66,-6,66,33r0,249v4,41,70,25,111,25r176,0v42,0,91,12,91,-42r0,-194v-2,-39,-8,-78,46,-71v23,3,46,-1,46,24r1,642v0,22,0,42,-18,44v-32,4,-86,11,-76,-36r1,-245v9,-52,-40,-45,-89,-44r-260,0v-38,0,-29,50,-29,86r0,201v5,36,-18,43,-52,40","w":722},"I":{"d":"149,1v-41,3,-66,4,-66,-49r-1,-630v-7,-43,61,-39,88,-25v15,33,7,95,7,142r0,531v1,22,-9,30,-28,31","w":259},"J":{"d":"348,-194r-1,-463v-18,-56,42,-71,87,-48v9,18,6,53,6,79r0,458v0,153,-145,210,-291,173v-89,-22,-138,-110,-124,-223v2,-16,24,-16,43,-16v21,-1,46,-1,46,20v0,80,21,145,101,151v88,7,133,-42,133,-131","w":519},"K":{"d":"119,-2v-36,5,-40,-17,-40,-51r-1,-631v-6,-41,62,-36,88,-22v19,87,-5,218,9,320v35,18,55,-42,85,-58r260,-255v17,-22,61,-14,98,-15v23,-1,16,21,7,29r-255,246v-17,34,22,61,40,85r237,324v8,9,8,28,-9,28v-36,0,-83,7,-100,-17r-229,-319v-8,-16,-33,-15,-45,1v-36,46,-93,58,-92,155r1,141v4,36,-20,42,-54,39","w":667},"L":{"d":"187,-1v-47,-6,-108,23,-108,-45r1,-642v0,-18,10,-23,27,-25v30,-1,65,-5,65,29r0,569v-6,49,51,36,94,36r264,1v32,4,29,77,-6,77r-337,0"},"M":{"d":"146,-2v-45,5,-65,-1,-65,-48r-1,-633v-2,-47,63,-25,109,-30v38,5,40,50,51,79r180,480v4,21,24,16,30,0r202,-534v10,-38,67,-22,112,-25v26,-1,26,24,26,50r0,634v1,24,-18,29,-43,28v-65,14,-45,-63,-45,-120r-2,-417v-2,-18,-17,-12,-22,2r-198,520v-11,23,-80,22,-90,-4r-192,-508v-1,-14,-23,-35,-26,-8v-3,31,-2,68,-2,104r0,405v-1,15,-9,23,-24,25","w":871},"N":{"d":"144,-1v-31,0,-66,5,-66,-27r0,-654v-3,-37,33,-30,68,-32v39,-2,46,24,61,46r321,494v9,17,29,14,29,-8r0,-507v2,-28,31,-24,61,-24v27,0,27,22,27,49r0,613v16,59,-50,55,-98,46v-26,-18,-38,-49,-55,-75r-295,-452v-4,-8,-22,-24,-27,-7v-10,152,3,350,-4,514v-1,17,-8,21,-22,24","w":722},"O":{"d":"483,-716v160,51,250,193,235,406v-16,228,-196,367,-447,311v-211,-47,-299,-373,-176,-576v53,-88,137,-149,271,-154v45,-1,84,3,117,13xm146,-465v-66,233,72,459,319,389v175,-50,206,-367,87,-503v-53,-60,-175,-93,-271,-53v-73,30,-113,89,-135,167","w":760},"P":{"d":"144,-1v-41,0,-66,4,-66,-48r0,-631v-1,-21,8,-33,27,-33v121,0,261,-7,367,10v164,27,173,321,40,384v-67,32,-175,26,-272,26v-35,0,-70,-5,-70,35r1,186v0,30,7,71,-27,71xm200,-635v-35,0,-30,38,-29,72v3,59,-8,132,5,181v6,11,22,11,39,11v154,3,313,16,299,-149v-11,-135,-169,-114,-314,-115","w":648},"Q":{"d":"380,14v-276,0,-391,-247,-321,-513v43,-164,209,-261,419,-220v240,47,314,439,155,621v-8,8,-15,26,-3,36v22,19,47,35,65,58v5,23,-17,38,-31,51v-56,3,-77,-87,-137,-63v-42,18,-92,30,-147,30xm570,-160v70,-91,69,-300,5,-390v-44,-62,-108,-105,-218,-103v-272,4,-284,471,-89,563v49,23,136,37,188,10v27,-35,-80,-50,-31,-96v47,-66,93,84,145,16","w":760},"R":{"d":"395,-714v205,-34,302,197,180,329v-14,15,-65,36,-30,54v92,46,52,206,93,305v12,30,-33,24,-64,24v-65,0,-38,-96,-48,-158v-14,-87,-38,-154,-143,-147v-64,4,-139,-7,-197,3v-23,4,-15,53,-15,79r0,145v-1,26,10,74,-19,76v-26,2,-74,11,-74,-22r0,-658v-1,-20,9,-30,27,-30r290,0xm200,-636v-34,0,-29,36,-29,69r0,115v-3,39,-1,69,43,67v155,-7,337,28,321,-145v-8,-84,-71,-106,-170,-106r-165,0","w":685},"S":{"d":"496,-252v-125,-126,-446,-33,-435,-284v7,-161,178,-218,346,-183v96,20,161,82,171,191v3,35,-63,28,-83,14v-23,-85,-74,-137,-183,-136v-97,1,-167,42,-155,141v44,117,226,88,336,143v69,34,129,86,117,192v-17,148,-155,203,-323,188v-141,-13,-232,-81,-247,-222v-4,-35,47,-25,75,-22v19,10,12,38,23,58v32,114,237,140,338,72v40,-27,58,-113,20,-152","w":648},"T":{"d":"69,-636v-38,3,-73,2,-67,-42v3,-21,8,-37,29,-36r514,0v28,-1,29,22,28,51v-1,29,-28,27,-59,27r-114,0v-39,-3,-66,0,-66,43r1,544v7,45,-22,47,-67,47v-28,0,-27,-24,-27,-50r1,-542v5,-41,-25,-42,-63,-42r-110,0","w":574},"U":{"d":"94,-712v34,-4,74,-9,74,33r0,370v-9,156,47,243,191,247v144,3,195,-85,195,-238r0,-337v2,-30,-9,-78,26,-76v32,2,68,-7,68,34r-1,373v43,282,-224,390,-455,284v-99,-45,-117,-165,-117,-318r0,-347v0,-14,6,-23,19,-25","w":722},"V":{"d":"603,-699v-29,104,-68,204,-104,305r-131,368v-6,37,-73,29,-110,22v-95,-213,-163,-455,-246,-681v-12,-32,26,-25,56,-27v54,-3,51,51,63,88r158,480v4,11,7,19,16,25v17,-1,18,-17,22,-29r183,-546v7,-25,57,-20,85,-14v4,1,7,4,8,9","w":611},"W":{"d":"417,-447r-117,425v-5,30,-55,24,-87,21v-24,-3,-22,-23,-28,-45r-165,-638v-7,-32,29,-28,58,-28v56,0,47,70,59,119r103,431v2,11,14,14,19,6v47,-139,80,-292,121,-437r27,-99v6,-30,59,-19,92,-19v32,14,31,60,41,97r121,451v4,20,22,10,25,-4r130,-526v7,-26,48,-18,78,-18v34,31,-17,97,-19,142r-147,549v-6,31,-72,23,-99,13v-63,-173,-101,-372,-157,-551v-2,-8,-10,-14,-16,-9v-22,31,-28,80,-39,120","w":926},"X":{"d":"31,-692v-6,-35,58,-19,89,-18v22,10,32,38,45,57r125,195v32,24,48,-27,63,-49r132,-195v16,-18,52,-10,83,-10v19,0,13,24,5,32r-204,304v-3,41,31,66,51,95r174,257v11,20,-11,23,-30,23v-44,0,-76,1,-88,-32r-162,-245v-33,-9,-42,40,-62,60r-133,198v-11,26,-66,23,-97,15v-17,-29,25,-50,34,-77r176,-259v27,-35,-12,-68,-28,-92r-167,-247","w":611},"Y":{"d":"29,-675v-13,-13,-15,-40,11,-38v26,2,70,-6,82,13r192,302v37,26,54,-37,70,-63r145,-234v10,-24,69,-22,98,-13v11,38,-39,68,-51,103r-190,293v-31,66,-5,192,-13,286v-2,33,-36,25,-69,25v-34,0,-24,-49,-24,-82r-1,-199v-74,-141,-168,-260,-250,-393","w":648},"Z":{"d":"160,-635v-56,0,-119,14,-102,-57v4,-15,11,-21,27,-21r448,0v59,-15,53,70,29,99r-397,496v-8,9,-20,25,-9,34v22,11,61,5,93,5r325,2v25,8,26,76,-10,76r-513,0v-41,3,-31,-73,-14,-95r413,-519v1,-33,-57,-20,-91,-20r-199,0","w":611},"[":{"d":"217,196v-61,-7,-145,26,-145,-36r0,-856v-4,-54,65,-35,111,-35v32,0,78,-6,75,31v6,43,-37,38,-74,35v-39,-2,-33,39,-33,74r0,692v-7,61,107,-6,107,63v0,26,-15,35,-41,32","w":259},"\\":{"d":"-5,-700v-15,-33,30,-34,53,-25v45,65,69,155,99,232r192,487v6,30,-42,25,-58,15v-44,-73,-71,-164,-103,-245","w":333},"]":{"d":"109,-617v11,-64,-49,-37,-92,-49v-28,-8,-18,-75,18,-64r126,0v30,-2,28,30,27,60r0,793v2,37,5,73,-40,73r-101,0v-45,13,-60,-44,-30,-64v34,-8,92,13,92,-32r0,-717","w":259},"^":{"d":"536,-280v-1,28,-62,20,-66,-2r-162,-317v-32,-15,-37,42,-54,64r-128,256v-6,16,-39,22,-57,13v-21,-34,29,-72,37,-109r150,-297v5,-27,65,-32,79,-10v48,78,86,168,128,250v26,50,53,97,73,152","w":600},"_":{"d":"20,77r455,-1v25,-4,29,36,13,44v-130,12,-307,-6,-456,4v-32,2,-42,-40,-12,-47","w":500},"`":{"d":"1,-720v14,-17,81,-16,93,4r64,105v8,24,-23,27,-42,19v-34,-13,-46,-48,-72,-70v-13,-12,-20,-25,-34,-36v-6,-5,-9,-13,-9,-22","w":222},"a":{"d":"505,-62v28,8,17,71,-15,68v-40,10,-84,-4,-93,-36v-10,-37,-45,-6,-60,5v-37,26,-96,33,-160,33v-113,0,-178,-123,-119,-225v46,-79,179,-79,280,-99v46,-9,58,-74,28,-108v-40,-46,-177,-37,-208,10v-15,23,-10,57,-59,57v-24,0,-43,-4,-39,-31v18,-133,189,-163,323,-125v65,19,85,78,85,167r1,248v0,24,17,30,36,36xm169,-214v-68,33,-49,149,38,149v112,0,198,-47,176,-175v-6,-36,-58,0,-90,-3v-43,7,-90,13,-124,29","w":537},"b":{"d":"268,-524v231,-39,326,171,269,385v-35,131,-242,199,-356,99v-20,-18,-33,6,-33,27v-20,22,-93,20,-80,-28r0,-614v-1,-28,-4,-58,27,-58v28,0,56,-3,56,31r3,196v20,32,44,-21,71,-25v12,-6,26,-10,43,-13xm279,-453v-190,28,-173,416,53,389v177,-22,171,-345,26,-382v-22,-6,-51,-11,-79,-7","w":593},"c":{"d":"250,-450v-158,22,-172,362,-3,385v95,12,150,-30,169,-105v7,-28,92,-32,82,15v-28,132,-177,199,-324,146v-121,-43,-170,-221,-117,-367v33,-92,95,-147,213,-152v127,-6,203,48,227,151v8,35,-53,28,-78,19v-26,-60,-76,-105,-169,-92","w":537},"d":{"d":"442,-645v1,-31,-6,-67,27,-67v27,0,56,-3,56,28r0,654v4,35,-37,30,-66,28v-25,-1,-8,-54,-41,-37v-44,48,-154,58,-232,35v-172,-52,-192,-382,-50,-483v72,-51,229,-48,280,13v19,13,26,-10,26,-31r0,-140xm214,-79v136,60,247,-51,230,-207v-12,-115,-98,-198,-224,-157v-102,33,-123,234,-54,323v13,17,28,32,48,41","w":593},"e":{"d":"365,0v-249,78,-406,-186,-291,-408v42,-82,148,-144,271,-110v109,30,167,127,167,262v0,37,-54,23,-88,23r-272,1v-39,1,-20,56,-13,80v27,97,219,126,267,30v7,-33,44,-52,85,-35v17,20,-6,54,-16,71v-26,44,-57,69,-110,86xm350,-306v28,-1,78,10,69,-31v-19,-81,-101,-142,-199,-107v-52,18,-90,57,-90,121v0,25,44,17,68,17r152,0","w":537},"f":{"d":"217,-720v40,-4,87,-4,79,44v1,22,-11,30,-33,29v-60,-4,-83,18,-80,78v-10,47,21,59,72,52v35,-5,36,58,14,71v-35,8,-103,-16,-86,59r-1,361v-1,28,-32,27,-61,24v-33,-3,-22,-56,-22,-91r0,-273v1,-40,8,-86,-44,-78v-30,5,-46,-6,-43,-37v-13,-65,94,-7,88,-71v-10,-103,29,-162,117,-168","w":296},"g":{"d":"438,-507v28,-18,85,-12,72,34r-2,477v7,197,-251,259,-396,159v-23,-16,-42,-41,-50,-77v-8,-33,37,-29,66,-25v21,9,24,35,40,48v52,44,175,44,218,-9v28,-34,50,-93,42,-153v-27,-14,-39,28,-65,35v-37,24,-115,24,-167,13v-194,-41,-197,-402,-47,-489v67,-39,206,-45,249,12v11,15,36,16,34,-11v0,-5,3,-10,6,-14xm190,-94v126,83,255,-38,237,-200v-12,-110,-90,-188,-210,-147v-113,39,-120,286,-27,347","w":574},"h":{"d":"148,-79v-1,38,11,89,-41,79v-68,13,-42,-84,-42,-143r-1,-539v-1,-20,10,-29,28,-30v28,-1,56,-2,56,30r1,192v1,39,32,8,44,-1v35,-26,86,-40,145,-35v122,8,153,97,153,239r0,208v-1,35,11,85,-34,79v-36,4,-49,-6,-49,-45r0,-289v19,-132,-158,-146,-222,-71v-56,65,-34,209,-38,326"},"i":{"d":"74,-700v14,-21,83,-23,80,14v-4,37,11,82,-36,75v-59,13,-50,-47,-44,-89xm95,-516v37,-4,59,-1,59,44r0,444v1,23,-17,27,-42,27v-32,0,-41,-11,-41,-45r0,-444v0,-17,9,-25,24,-26","w":222},"j":{"d":"70,-638v0,-35,-5,-76,28,-76v36,0,63,2,56,46v2,33,-1,59,-36,57v-25,-2,-48,1,-48,-27xm70,-463v-2,-30,2,-54,29,-54v31,0,55,-1,55,33r-1,564v-2,82,-68,132,-151,112v-20,-5,-19,-63,1,-67v49,-1,67,-28,67,-83r0,-505","w":222},"k":{"d":"106,-1v-33,0,-36,-18,-36,-49r0,-633v-1,-20,9,-29,27,-30v34,-2,56,1,56,40r0,337v0,43,38,16,48,0r158,-151v16,-29,71,-35,116,-25v15,26,-29,39,-41,59r-114,103v-35,37,22,73,34,105r146,219v11,20,-8,25,-31,25v-37,0,-58,-1,-75,-27r-145,-219v-30,-32,-62,24,-85,41v-24,39,-11,113,-11,175v0,29,-19,30,-47,30","w":519},"l":{"d":"154,-58v3,36,-1,63,-41,57v-68,13,-42,-85,-42,-144r-1,-537v-3,-31,25,-31,56,-31v28,0,29,23,28,49r0,606","w":222},"m":{"d":"159,-465v53,-61,212,-94,275,-15v8,18,33,32,46,10v37,-41,99,-66,174,-57v100,13,134,75,134,199r0,292v7,43,-43,38,-73,30v-19,-19,-10,-68,-10,-106r0,-191v17,-116,-55,-181,-160,-141v-57,22,-76,76,-76,161r0,253v2,27,-20,29,-47,29v-64,0,-32,-88,-37,-141v-12,-141,44,-355,-135,-308v-68,18,-101,75,-101,168r0,250v2,32,-25,33,-57,31v-43,-2,-26,-68,-26,-110r0,-379v-5,-35,63,-34,75,-14v7,12,-2,39,18,39","w":853},"n":{"d":"107,-515v19,-1,38,5,36,21v-1,11,1,29,11,34v17,2,25,-18,35,-25v31,-21,65,-39,118,-41v135,-4,185,70,185,205r0,263v2,33,1,64,-36,59v-71,15,-45,-74,-47,-135v-6,-152,36,-349,-140,-316v-95,18,-120,97,-120,217r0,207v2,27,-21,27,-48,27v-33,0,-35,-19,-35,-52r0,-439v0,-22,19,-24,41,-25"},"o":{"d":"145,-489v224,-132,475,83,369,357v-43,111,-193,171,-335,121v-143,-50,-186,-303,-87,-429v14,-20,32,-37,53,-49xm294,-454v-146,-10,-193,147,-155,283v22,77,111,135,206,98v68,-26,103,-91,103,-184v0,-116,-50,-190,-154,-197","w":574},"p":{"d":"256,-523v225,-50,336,151,284,373v-33,143,-248,208,-367,104v-8,-6,-19,0,-19,8v0,61,-3,133,-3,201v0,34,-27,32,-60,31v-26,-1,-23,-32,-23,-59r0,-625v-5,-38,57,-33,78,-19v7,9,3,27,15,34v15,2,24,-14,33,-20v18,-11,38,-23,62,-28xm242,-79v169,65,271,-109,209,-278v-25,-69,-112,-122,-207,-87v-125,46,-124,318,-2,365","w":593},"q":{"d":"57,-141v-70,-201,39,-436,275,-380v38,9,59,27,85,45v29,20,16,-34,43,-38v24,-4,65,-8,64,20r1,640v4,33,-4,54,-39,50v-42,6,-44,-22,-44,-64r0,-123v3,-24,1,-68,-26,-49v-47,57,-192,64,-260,20v-48,-30,-79,-64,-99,-121xm198,-90v157,95,301,-81,231,-263v-26,-69,-112,-126,-210,-90v-116,43,-122,292,-21,353","w":593},"r":{"d":"96,-518v68,-8,32,59,54,78v30,-9,35,-38,61,-54v28,-18,53,-30,93,-34v38,-3,26,29,29,64v-5,39,-65,20,-94,41v-120,46,-93,235,-93,398v0,27,-33,23,-61,23v-40,-9,-22,-80,-22,-124r1,-366v0,-18,13,-24,32,-26","w":333},"s":{"d":"362,-180v-104,-85,-370,-35,-313,-248v34,-127,311,-134,371,-22v11,20,25,47,17,74v-17,14,-72,14,-79,-10v-14,-52,-74,-73,-141,-67v-50,5,-98,28,-83,83v69,117,349,17,330,246v-15,178,-372,172,-419,31v-16,-26,-23,-81,32,-69v18,4,36,3,39,20v15,88,168,98,237,54v23,-15,34,-71,9,-92","w":500},"t":{"d":"95,-533v15,-62,-34,-150,59,-139v43,5,22,65,27,105v-3,31,3,53,38,50v31,-3,71,-5,64,33v7,44,-28,43,-69,40v-38,-3,-33,35,-33,70r-1,244v-5,53,38,53,86,56v26,2,25,69,-2,71v-81,7,-164,-1,-165,-83r-2,-328v3,-56,-98,-3,-88,-63v-8,-48,35,-38,72,-42v6,-3,11,-8,14,-14","w":315},"u":{"d":"317,-2v-141,42,-252,-26,-252,-182r0,-306v-1,-28,28,-26,56,-26v29,0,27,26,27,52r0,292v-12,125,158,135,220,64v61,-70,40,-223,40,-351v0,-36,2,-63,42,-57v59,-11,41,61,41,112r-1,382v-4,33,-84,31,-78,-7v-1,-12,0,-28,-14,-27v-26,18,-47,43,-81,54"},"v":{"d":"25,-491v-9,-38,54,-27,79,-19v19,21,24,55,34,84r104,305v3,11,17,15,22,3v43,-108,74,-226,114,-337v6,-41,30,-76,88,-58v23,15,-3,47,-6,66r-158,429v-12,29,-107,27,-107,-12","w":500},"w":{"d":"28,-490v-9,-37,53,-28,78,-20v28,39,35,102,49,152r60,214v1,13,20,28,25,10r95,-370v19,-21,104,-21,100,20r89,342v0,12,19,26,23,10r102,-362v4,-25,42,-26,70,-20v28,6,6,48,0,66r-139,433v-12,21,-60,15,-87,9v-30,-48,-38,-124,-54,-184r-48,-180v-14,-20,-23,5,-26,17r-87,336v-14,27,-102,25,-103,-13","w":758},"x":{"d":"46,-488v-19,-36,28,-27,51,-28v59,-4,66,46,90,80r56,79v41,23,56,-46,80,-70v36,-37,44,-103,131,-88v32,5,6,36,-3,47r-134,184v-1,33,25,51,41,74r132,186v9,19,-10,27,-34,23v-57,8,-70,-23,-92,-55r-92,-136v-27,-22,-43,20,-55,37r-101,146v-18,11,-72,14,-89,-1v3,-33,25,-48,42,-71r121,-171v19,-26,-9,-51,-21,-68","w":518},"y":{"d":"20,-490v-10,-32,29,-25,52,-26v51,-3,49,50,62,86r109,302v7,20,28,3,29,-10r122,-352v4,-30,53,-30,82,-22v15,11,-1,36,-5,47r-200,522v-29,80,-77,170,-195,142v-26,-6,-29,-81,11,-71v81,20,97,-58,121,-116v-1,-83,-47,-150,-76,-222","w":500},"z":{"d":"70,-443v-35,3,-35,-72,-7,-72r357,-1v39,2,24,67,5,80r-274,334v-16,21,9,28,34,28r252,2v28,-1,28,60,8,68v-110,9,-258,-7,-383,3v-52,4,-42,-60,-21,-85r273,-332v14,-22,-13,-24,-36,-24","w":480},"{":{"d":"131,-569v0,-100,37,-162,127,-161v32,0,49,-1,49,33v0,24,-16,26,-37,26v-94,4,-60,145,-60,235v0,74,-16,128,-60,156v-25,25,25,36,32,56v43,49,28,158,28,248v0,65,4,123,72,116v30,-3,36,49,10,54v-110,17,-161,-44,-161,-161v0,-103,23,-231,-65,-263v-25,-9,-22,-66,4,-74v81,-26,61,-157,61,-265","w":333},"|":{"d":"145,-786r0,999r-68,0r0,-999r68,0","w":222},"}":{"d":"26,-701v0,-26,17,-29,38,-30v170,-11,129,172,139,336v3,46,30,79,67,95v24,10,19,64,-6,72v-81,27,-62,158,-62,267v0,99,-33,157,-132,157v-32,0,-48,-4,-44,-39v4,-33,58,-10,76,-33v61,-79,-32,-298,74,-370v14,-9,19,-28,0,-38v-69,-39,-53,-164,-53,-272v0,-60,0,-115,-59,-116v-23,-1,-38,-2,-38,-29","w":333},"~":{"d":"522,-263v-23,67,-128,106,-200,57v-53,-36,-164,-79,-202,-3v-12,25,-44,5,-44,-13v0,-92,133,-108,207,-69v51,28,143,79,185,10v10,-17,33,-35,48,-5v4,8,8,16,6,23","w":600},"\u00a0":{"w":278}}});
/*!
 * The following copyright notice may not be removed under any circumstances.
 * 
 * Copyright:
 * Copyright (c) 2007 by Yann Le Coroller. All rights reserved.
 * 
 * Description:
 * Copyright (c) 2007 by Yann Le Coroller. All rights reserved.
 * 
 * Manufacturer:
 * Yann Le Coroller
 * 
 * Designer:
 * Yann Le Coroller
 * 
 * Vendor URL:
 * http://www.kub.fr/
 */
Cufon.registerFont({"w":556,"face":{"font-family":"Alte Haas Grotesk","font-weight":700,"font-stretch":"normal","units-per-em":"1000","panose-1":"2 0 8 3 0 0 0 9 0 4","ascent":"800","descent":"-200","bbox":"-21.8109 -806.768 932.293 212.202","underline-thickness":"50","underline-position":"-75","unicode-range":"U+0020-U+007E"},"glyphs":{" ":{"w":278},"!":{"d":"102,-237v-18,-146,-43,-281,-36,-450v1,-42,65,-21,104,-26v32,-3,42,8,42,43v0,160,-20,289,-36,428v-2,21,-16,27,-40,27v-19,0,-32,-6,-34,-22xm81,-152v56,3,144,-24,136,39v-4,34,6,82,-7,106v-24,12,-70,1,-105,6v-65,9,-43,-65,-43,-125v0,-15,6,-21,19,-26","w":278},"\"":{"d":"102,-712v38,-3,88,-14,88,32r0,260v1,24,-19,26,-42,26v-35,0,-63,3,-63,-40r0,-205v1,-26,-8,-71,17,-73xm288,-712v37,-3,88,-14,88,30r0,261v1,24,-18,27,-42,27v-35,0,-72,2,-63,-40r0,-205v1,-26,-8,-71,17,-73","w":463},"#":{"d":"462,-504v33,6,69,2,59,50v10,47,-31,41,-70,44v-32,13,-20,63,-30,102v9,41,90,-4,69,92v-8,38,-92,-7,-90,52v-10,51,-10,110,-26,155v-6,9,-21,10,-36,9v-27,-1,-56,3,-52,-28r16,-120v21,-53,-40,-60,-84,-44v-26,45,-14,130,-38,183v-12,15,-56,9,-78,6v-13,-7,-9,-29,-7,-45v6,-28,7,-58,12,-86v5,-27,13,-70,-27,-64v-43,6,-50,-20,-46,-65v4,-49,95,7,99,-57v3,-34,28,-101,-25,-92v-48,8,-54,-36,-42,-76v10,-32,87,15,96,-46r20,-133v0,-19,12,-31,30,-31v29,0,71,-8,66,28r-20,146v-1,32,40,24,70,24v50,-12,29,-92,44,-146v6,-23,2,-52,30,-52v33,0,73,-8,68,30v-7,50,-18,99,-18,151v2,7,6,12,10,13xm272,-286v67,8,57,-52,64,-98v5,-36,-44,-28,-74,-27v-36,10,-29,62,-34,102v-3,24,21,20,44,23"},"$":{"d":"416,-8v-41,20,-116,2,-109,65v2,28,-5,46,-35,43v-49,-5,8,-93,-66,-90v-119,-22,-186,-94,-202,-214v-6,-45,74,-23,120,-25v29,15,22,67,47,87v17,14,33,37,65,35v13,-1,13,-21,13,-37v0,-52,7,-117,-6,-160v-17,-18,-51,-18,-76,-29v-106,-24,-188,-139,-132,-269v30,-70,95,-109,182,-124v52,5,11,-73,55,-80v61,-10,4,81,75,82v93,23,153,69,178,162v7,27,-1,48,-36,43v-34,-5,-87,11,-98,-16v-13,-34,-26,-67,-65,-73v-22,-4,-21,27,-19,50v5,46,-19,120,26,128v139,26,265,123,213,293v-19,63,-71,100,-130,129xm198,-468v12,9,50,21,50,-6v0,-42,7,-95,-4,-129v-60,-31,-116,73,-66,121v6,5,13,9,20,14xm322,-284v-18,4,-16,27,-15,47r1,115v7,34,56,10,72,-4v38,-20,49,-99,12,-128v-17,-14,-39,-29,-70,-30"},"%":{"d":"655,-698v4,-26,75,-38,84,-10v-31,81,-76,147,-117,220r-269,484v-7,25,-53,30,-80,20v-15,-11,4,-35,9,-45xm179,-702v174,-60,269,112,213,280v-26,79,-130,115,-224,84v-109,-36,-117,-245,-44,-326v14,-16,31,-30,55,-38xm176,-545v-6,76,5,163,82,143v66,-17,57,-152,31,-210v-12,-17,-30,-34,-62,-25v-36,10,-48,48,-51,92xm697,-365v173,-60,264,108,210,280v-31,99,-202,127,-273,47v-55,-62,-54,-234,5,-290v15,-14,32,-28,58,-37xm702,-102v22,68,118,37,118,-36v0,-72,9,-170,-68,-163v-73,6,-71,134,-50,199","w":1000},"&":{"d":"527,-343v41,3,98,-13,87,33v-11,47,-28,90,-51,125v-18,28,12,45,25,61r87,106v6,22,-25,18,-46,18v-53,-2,-112,11,-133,-31v-10,-21,-38,-39,-61,-14v-66,70,-249,80,-327,11v-76,-43,-101,-203,-34,-281v28,-33,58,-59,96,-79v19,-10,4,-39,-5,-47v-28,-38,-47,-97,-34,-158v32,-146,300,-155,357,-27v20,46,18,126,-7,164v-23,34,-56,59,-87,84v-13,29,23,48,35,70v12,23,51,55,60,6v4,-22,10,-42,38,-41xm242,-105v60,15,107,-17,136,-49v8,-46,-48,-73,-69,-108v-15,-24,-40,-60,-78,-34v-36,25,-78,65,-59,127v10,32,34,55,70,64xm335,-622v-70,-22,-103,63,-63,118v13,17,31,53,58,34v29,-20,61,-56,49,-104v-6,-26,-22,-41,-44,-48","w":685},"'":{"d":"104,-712v38,-3,88,-14,88,32r0,260v1,24,-19,26,-42,26v-35,0,-63,3,-63,-40r0,-205v1,-26,-8,-71,17,-73","w":278},"(":{"d":"174,161v-121,-175,-158,-532,-59,-759v17,-38,33,-73,53,-106v10,-33,73,-30,112,-23v23,21,-8,53,-16,76v-12,38,-27,76,-38,115v-63,230,-22,519,60,687v18,37,-39,27,-79,29v-17,0,-26,-8,-33,-19","w":296},")":{"d":"122,-711v121,175,158,532,59,759v-17,38,-33,73,-53,106v-10,33,-74,30,-113,23v-23,-21,9,-53,17,-76v12,-38,27,-76,38,-115v63,-230,22,-519,-60,-687v-18,-37,39,-27,79,-29v17,0,26,8,33,19","w":296},"*":{"d":"220,-713v43,8,7,77,29,111v38,16,72,-38,111,-16v9,14,26,44,12,60v-23,17,-58,21,-84,34v-37,41,88,86,19,129v-10,6,-26,22,-39,9v-19,-21,-33,-42,-50,-65v-52,-39,-56,112,-121,54v-12,-7,-27,-21,-17,-40v14,-27,44,-43,46,-77v-18,-27,-68,-21,-91,-44v-11,-21,5,-75,39,-65v23,8,43,20,69,25v56,0,-31,-134,77,-115","w":407},"+":{"d":"503,-305v26,-1,50,1,49,27v-2,30,11,75,-20,78v-40,3,-88,1,-130,1v-27,0,-48,1,-48,29r0,141v1,29,-26,29,-54,29v-28,0,-52,0,-52,-30r0,-116v0,-26,2,-53,-25,-53r-151,-1v-23,-1,-23,-23,-23,-47v0,-33,-1,-58,35,-58r109,0v31,1,55,0,55,-33r0,-109v-1,-27,-4,-56,26,-56v33,0,80,-11,80,29r0,116v0,29,-1,53,30,53r119,0","w":600},",":{"d":"62,-20v0,-51,-20,-133,29,-133r82,0v70,-10,43,80,43,149v0,97,-57,144,-137,163v-27,-3,-19,-60,-1,-69v25,-13,51,-35,51,-72v0,-34,-67,-2,-67,-38","w":278},"-":{"d":"56,-230v-3,-39,-16,-103,24,-103r252,1v35,3,19,55,21,92v2,26,-18,28,-44,27r-218,1v-20,0,-31,-4,-35,-18","w":407},".":{"d":"192,-2v-60,0,-141,22,-131,-43v7,-40,-20,-108,28,-108r101,0v47,4,25,82,25,131v0,14,-11,20,-23,20","w":278},"\/":{"d":"350,-729v44,0,10,55,2,78r-242,645v-7,31,-66,23,-100,19v-16,-7,-6,-33,-1,-45r249,-670v6,-35,52,-27,92,-27","w":371},"0":{"d":"342,3v-276,57,-354,-213,-313,-473v21,-133,78,-230,218,-243v255,-23,313,216,280,468v-16,126,-63,223,-185,248xm388,-250v12,-146,29,-342,-119,-348v-137,23,-118,245,-97,385v9,61,46,120,122,107v66,-12,88,-75,94,-144"},"1":{"d":"77,-472v-6,-44,-10,-100,47,-89v75,-11,131,-42,148,-109v10,-39,58,-28,97,-27v23,0,22,25,22,50r0,585v1,30,4,65,-27,62v-47,-5,-113,26,-113,-46r-1,-388v-11,-37,-79,-15,-125,-20v-21,-2,-46,2,-48,-18"},"2":{"d":"39,-464v13,-153,92,-249,243,-249v162,0,269,93,245,262v-24,174,-219,192,-305,311v-1,31,56,19,89,19r186,-1v46,-6,37,37,37,77v14,61,-60,44,-114,44r-346,0v-60,15,-55,-44,-40,-89v53,-163,225,-204,327,-316v64,-70,10,-217,-102,-183v-57,17,-80,67,-85,133v-3,36,-57,21,-94,24v-26,2,-43,-5,-41,-32"},"3":{"d":"168,-492v-7,31,-58,15,-94,20v-58,8,-31,-68,-18,-101v38,-105,161,-168,301,-129v94,26,171,97,149,224v-8,46,-40,69,-68,94v-5,19,23,27,36,36v51,35,77,120,53,199v-37,126,-175,185,-331,151v-104,-23,-167,-95,-177,-212v-4,-48,65,-26,109,-30v41,7,24,63,51,90v24,50,132,61,178,18v37,-34,43,-130,-1,-160v-22,-15,-54,-29,-93,-25v-45,4,-39,-59,-29,-91v65,-15,164,-24,138,-126v-18,-73,-147,-83,-183,-18v-10,17,-16,38,-21,60"},"4":{"d":"315,-690v45,-15,147,-29,131,35r2,359v6,39,90,-7,90,41r1,65v1,57,-93,-7,-93,65r0,99v0,30,-38,25,-65,25v-37,0,-68,6,-68,-42r0,-93v0,-33,-41,-28,-72,-27r-148,0v-38,0,-86,10,-76,-42v-3,-35,-2,-86,15,-108xm149,-283v36,12,91,5,137,5v31,0,28,-37,27,-71r-1,-129v2,-26,-24,-25,-32,-6r-135,183v-3,6,-1,16,4,18"},"5":{"d":"47,-344r59,-330v2,-14,13,-25,30,-25r340,1v35,2,24,53,24,88v0,47,-80,21,-124,26v-52,6,-118,-7,-159,7v-21,27,-17,79,-27,119v6,38,44,-2,62,-6v189,-48,310,91,278,291v-33,210,-412,244,-489,58v-8,-22,-24,-52,-16,-81v19,-21,69,-11,109,-11v45,0,31,63,68,79v22,27,94,31,128,10v41,-25,66,-63,68,-125v6,-117,-148,-167,-216,-87v-21,25,-75,16,-114,16v-19,0,-23,-11,-21,-30"},"6":{"d":"188,-423v53,-64,198,-52,261,-3v64,50,98,160,72,267v-34,140,-220,215,-365,137v-186,-101,-163,-531,-10,-643v61,-45,193,-66,268,-21v52,30,90,75,102,144v-1,28,-38,20,-62,20v-26,0,-63,3,-70,-16v-17,-49,-80,-93,-139,-58v-51,30,-73,89,-82,162v-2,16,16,21,25,11xm180,-286v-24,83,12,165,83,180v128,27,164,-156,88,-234v-22,-23,-73,-31,-109,-17v-32,12,-52,37,-62,71"},"7":{"d":"113,-569v-36,0,-83,10,-74,-41v6,-35,-15,-89,28,-89r406,0v60,-12,41,65,39,118v-17,27,-44,46,-62,73v-88,126,-149,277,-162,477v-3,51,-80,24,-132,29v-40,-18,-8,-94,0,-132v33,-162,107,-292,192,-406v19,-26,-17,-29,-43,-29r-192,0"},"8":{"d":"440,-368v98,26,127,189,65,282v-71,107,-308,131,-413,42v-88,-48,-101,-238,-15,-299v15,-11,54,-20,42,-44v-53,-30,-87,-108,-65,-190v42,-156,341,-176,422,-49v37,38,48,138,12,190v-15,21,-36,33,-53,52v-3,5,2,14,5,16xm381,-481v31,-108,-104,-164,-179,-98v-17,15,-27,37,-29,69v-6,112,181,121,208,29xm366,-124v84,-86,-2,-240,-130,-192v-76,11,-102,126,-48,186v37,42,137,48,178,6"},"9":{"d":"194,-705v291,-71,387,240,315,513v-37,141,-186,252,-356,182v-62,-25,-106,-76,-115,-155v11,-28,68,-11,108,-15v39,13,34,62,76,76v106,37,168,-68,166,-175v-24,-15,-40,23,-65,29v-67,35,-183,12,-223,-30v-100,-61,-97,-284,-13,-360v30,-27,63,-54,107,-65xm256,-597v-120,4,-129,246,2,258v126,12,158,-166,78,-235v-18,-16,-48,-24,-80,-23"},":":{"d":"192,-355v-60,0,-141,22,-131,-43v7,-40,-20,-108,28,-108r101,0v47,4,25,83,25,132v0,14,-11,19,-23,19xm192,-2v-60,0,-141,22,-131,-43v7,-40,-20,-108,28,-108r101,0v47,4,25,82,25,131v0,14,-11,20,-23,20","w":278},";":{"d":"192,-355v-60,0,-141,22,-131,-43v7,-40,-20,-108,28,-108r101,0v47,4,25,83,25,132v0,14,-11,19,-23,19xm62,-20v0,-51,-20,-133,29,-133r82,0v70,-10,43,80,43,149v0,97,-57,144,-137,163v-27,-3,-19,-60,-1,-69v25,-13,51,-35,51,-72v0,-34,-67,-2,-67,-38","w":278},"<":{"d":"517,-7r-447,-178v-35,-7,-21,-66,-22,-107v12,-44,69,-47,107,-62r362,-144v21,-11,43,0,36,30v2,37,5,76,-31,81r-306,124v-17,33,50,41,79,53r234,94v34,8,24,64,23,103v-3,12,-22,11,-35,6","w":600},"=":{"d":"94,-307v-27,2,-49,-2,-46,-29v3,-31,-11,-76,28,-76r426,0v29,0,50,-1,50,31v0,41,9,74,-44,74r-414,0xm480,-198v31,0,72,-9,72,30v0,50,3,75,-52,75r-400,0v-25,2,-52,1,-51,-25v1,-39,-11,-80,42,-80r389,0","w":600},">":{"d":"83,-499r447,178v35,7,21,66,22,107v-12,44,-69,47,-107,62r-362,144v-21,11,-43,0,-36,-30v-2,-37,-5,-76,31,-81r306,-124v17,-33,-50,-41,-79,-53r-234,-94v-34,-8,-24,-64,-23,-103v3,-12,22,-11,35,-6","w":600},"?":{"d":"208,-252v8,-104,65,-152,126,-197v39,-29,46,-129,-2,-153v-68,-34,-150,9,-150,80v0,54,-70,33,-125,36v-47,-13,-9,-93,5,-120v36,-72,99,-122,205,-124v149,-3,257,59,257,196v0,120,-85,158,-149,215v-19,18,-33,39,-33,73v0,30,-22,32,-51,31v-37,-1,-86,11,-83,-37xm323,-153v46,4,19,80,26,128v-4,41,-73,18,-114,24v-63,10,-36,-69,-41,-127v7,-46,80,-17,129,-25"},"@":{"d":"658,-286v109,-225,-105,-443,-357,-345v-88,34,-139,106,-163,209v-71,303,282,456,501,283v20,-16,91,-11,63,25v-75,95,-243,164,-403,110v-151,-50,-263,-156,-263,-348v0,-232,140,-365,368,-378v170,-9,275,72,334,185v43,82,26,219,-19,280v-47,64,-99,125,-207,125v-31,0,-38,-27,-61,-37v-31,10,-44,34,-85,39v-183,23,-219,-229,-118,-341v40,-68,186,-119,255,-43v14,15,33,4,36,-10v13,-22,93,-21,74,21r-61,253v-4,54,60,31,80,6v9,-11,20,-21,26,-34xm388,-232v69,-16,101,-73,105,-152v5,-89,-117,-103,-160,-43v-59,49,-59,221,55,195","w":800},"A":{"d":"160,-24v-13,40,-75,20,-124,24v-63,5,-14,-68,-4,-96r224,-592v14,-43,90,-18,144,-26v52,7,42,76,67,113r213,575v5,47,-73,17,-124,26v-51,-5,-42,-75,-65,-112v-8,-26,-16,-48,-55,-48r-194,0v-61,1,-52,73,-75,115v-3,6,-5,14,-7,21xm375,-275v23,2,56,1,51,-19v-18,-76,-45,-148,-75,-215v-27,-15,-30,31,-38,52r-55,155v-9,45,73,23,117,27","w":685,"k":{"y":18,"w":18,"v":18,"Y":74,"W":24,"V":46,"T":92}},"B":{"d":"658,-268v39,171,-77,267,-249,267r-292,0v-47,8,-47,-24,-47,-67r0,-612v-1,-21,8,-33,27,-33r377,4v111,11,182,99,151,223v-11,43,-40,63,-67,90v-7,19,20,24,31,32v34,24,59,52,69,96xm338,-593v-50,4,-113,-24,-113,50r0,91v7,51,90,25,143,29v63,5,107,-17,112,-76v7,-83,-62,-100,-142,-94xm253,-319v-50,5,-19,94,-28,144v-14,77,75,53,142,55v77,3,139,-15,143,-88v4,-85,-53,-111,-144,-111r-113,0","w":704},"C":{"d":"493,0v-338,101,-561,-253,-405,-559v51,-100,143,-167,287,-171v179,-5,284,82,316,226v10,47,-75,28,-125,28v-27,0,-25,-29,-37,-45v-31,-63,-125,-95,-212,-66v-132,43,-151,289,-72,405v43,64,188,93,251,28v26,-26,41,-64,55,-104v11,-32,80,-10,125,-16v45,4,13,70,4,97v-30,89,-96,150,-187,177","w":741},"D":{"d":"365,-713v286,-19,395,268,305,523v-43,123,-148,189,-321,189r-233,0v-47,8,-47,-24,-47,-67r-1,-612v-1,-21,9,-33,28,-33r269,0xm225,-179v-13,75,77,43,140,47v183,12,215,-226,148,-365v-36,-76,-130,-86,-252,-86v-49,0,-37,54,-37,100","w":741},"E":{"d":"601,-689v0,51,22,106,-45,106r-250,0v-40,-1,-88,-8,-82,42v6,48,-19,113,42,113r282,1v34,3,19,54,22,90v3,39,-45,29,-81,29r-195,0v-38,-2,-76,-4,-70,41v9,59,-34,136,59,136r299,0v38,-1,22,51,27,87v9,64,-66,43,-121,43r-375,0v-63,12,-44,-63,-44,-117r0,-570v0,-17,11,-25,27,-25r461,0v24,-1,44,3,44,24","w":648},"F":{"d":"202,0v-61,-5,-133,24,-133,-43r-1,-631v-1,-26,7,-38,28,-38r431,0v49,-8,42,37,42,81v0,31,-2,49,-37,49r-226,0v-38,0,-89,-9,-82,38v7,51,-24,129,42,129r177,0v35,1,85,-11,81,31v-4,45,14,90,-40,90r-197,-1v-41,-3,-73,2,-63,53v-2,76,7,165,-4,232v-4,7,-11,7,-18,10","w":593,"k":{"A":55,".":157,",":157}},"G":{"d":"452,6v-341,80,-521,-324,-346,-597v53,-82,141,-140,269,-140v173,0,277,80,309,225v-2,44,-77,17,-124,24v-36,-5,-31,-53,-55,-70v-22,-27,-55,-45,-101,-48v-176,-11,-226,150,-203,319v17,128,154,207,282,144v41,-20,61,-55,71,-109v-1,-46,-80,-26,-129,-26v-32,0,-21,-43,-24,-73v-5,-48,34,-42,80,-42r185,0v36,-3,34,23,33,55r0,268v2,39,0,70,-45,62v-37,2,-59,-4,-61,-37v-1,-20,-19,-33,-33,-17v-27,30,-63,52,-108,62","w":759},"H":{"d":"70,-660v-1,-28,-1,-56,27,-53v49,6,129,-26,129,38r0,156v-1,35,-9,80,32,80r192,0v37,1,67,3,67,-40r-1,-197v-6,-48,43,-36,85,-37v39,-1,70,-7,70,46r0,641v-4,43,-67,19,-115,26v-47,7,-40,-39,-40,-82r-1,-206v-2,-27,-38,-20,-66,-20r-197,0v-41,1,-26,63,-26,103r0,170v3,55,-65,28,-118,35v-36,4,-39,-19,-38,-52r0,-608","w":741},"I":{"d":"68,-641v1,-30,-9,-71,27,-71r107,0v22,1,21,26,21,50r1,627v4,59,-77,34,-134,34v-21,0,-23,-20,-22,-42r0,-598","w":295},"J":{"d":"331,-659v-1,-28,-3,-54,27,-54v40,0,92,-6,121,7v11,16,7,51,7,77r0,371v31,223,-158,325,-353,250v-76,-29,-118,-99,-118,-208v0,-29,2,-51,31,-49v48,3,114,-17,110,35v-6,76,38,130,118,112v66,-15,56,-99,57,-177r0,-364"},"K":{"d":"183,-1v-50,-6,-113,27,-113,-51r0,-631v-3,-47,63,-26,104,-30v35,-3,51,3,51,41r0,210v-3,27,25,26,34,9r178,-188v34,-29,48,-79,118,-72v39,4,89,-6,120,4v13,24,-25,37,-35,56r-202,203v-23,42,29,71,44,105r221,311v10,11,12,33,-16,33r-145,-1v-27,-11,-38,-39,-53,-62r-154,-229v-8,-17,-31,-22,-46,-3v-29,36,-64,54,-64,132r0,118v4,33,-9,49,-42,45","w":722},"L":{"d":"185,-1v-48,-7,-116,26,-116,-45r1,-642v3,-43,72,-18,112,-25v69,-12,42,83,42,142r1,402v-7,43,33,38,72,38r194,0v38,1,89,-13,81,42v-6,44,17,88,-45,88r-342,0","w":593,"k":{"y":37,"Y":111,"W":55,"V":92,"T":92}},"M":{"d":"181,0v-55,-4,-111,18,-111,-44r1,-646v1,-17,11,-23,27,-23r164,0v53,3,42,68,64,106r120,349v4,13,21,12,26,-3r141,-434v11,-30,71,-14,111,-18v41,6,113,-18,113,27r0,642v11,62,-59,40,-117,43v-40,2,-27,-53,-27,-91r-1,-309v3,-25,-9,-82,-22,-45r-152,428v-13,27,-66,15,-105,17v-44,-15,-44,-73,-59,-115r-110,-311v-6,-11,-7,-28,-20,-26v-15,22,-9,63,-9,98r0,331v0,18,-15,25,-34,24","w":907},"N":{"d":"70,-660v-1,-28,-1,-54,27,-53v55,4,130,-18,147,31r252,404v3,9,24,25,28,6v5,-32,1,-73,2,-110r0,-300v-1,-50,67,-27,116,-31v29,-2,29,20,29,49r0,613v2,28,0,50,-26,50v-47,0,-119,15,-139,-17r-264,-422v-4,-7,-10,-10,-17,-10v-19,20,-9,71,-9,109r-1,309v3,52,-66,26,-115,31v-29,3,-31,-21,-30,-50r0,-609","w":741},"O":{"d":"499,-714v194,48,289,300,209,526v-56,158,-275,254,-469,173v-141,-59,-227,-213,-194,-415v29,-177,135,-289,331,-299v47,-3,88,6,123,15xm381,-599v-234,0,-239,413,-61,473v75,25,169,-4,204,-43v58,-64,79,-220,36,-316v-30,-68,-80,-114,-179,-114","w":778},"P":{"d":"386,-713v210,-24,311,205,207,370v-55,86,-188,93,-337,86v-36,-2,-32,31,-32,65v0,59,7,130,-4,180v-16,21,-70,7,-107,11v-33,4,-44,-10,-44,-43r-1,-631v-1,-27,7,-38,29,-38r289,0xm280,-376v120,0,226,-11,202,-139v-17,-89,-139,-82,-241,-76v-20,6,-17,32,-17,58r0,121v-2,33,24,36,56,36","w":667,"k":{"A":74,".":179,",":179}},"Q":{"d":"490,-718v234,42,316,405,174,604v-30,42,41,60,58,94v14,28,-25,44,-39,64v-37,31,-63,-28,-91,-43v-11,-12,-31,-27,-54,-15v-79,42,-223,31,-302,-2v-150,-64,-237,-267,-178,-473v48,-170,211,-268,432,-229xm448,-591v-200,-53,-293,144,-240,337v25,90,100,154,220,136v38,-30,-62,-51,-22,-88v18,-17,32,-59,66,-44v26,12,35,46,69,48v68,-70,47,-259,-5,-326v-22,-29,-49,-53,-88,-63","w":778},"R":{"d":"571,-331v93,45,74,196,99,308v0,42,-81,16,-127,21v-72,-41,9,-245,-118,-272v-46,-10,-112,-3,-170,-6v-39,-2,-30,44,-30,78r-1,176v2,38,-50,25,-86,25v-29,0,-69,7,-69,-25r-1,-657v-1,-20,10,-30,29,-30r340,0v136,0,215,64,224,189v6,83,-34,141,-86,174v-5,4,-10,13,-4,19xm253,-593v-27,0,-28,25,-28,56r0,117v3,53,86,23,141,30v98,12,159,-43,134,-142v-21,-81,-146,-58,-247,-61","w":722,"k":{"Y":37,"W":18,"V":18,"T":18}},"S":{"d":"226,-476v156,77,429,50,394,309v-31,231,-464,232,-561,62v-16,-27,-31,-61,-33,-101v-3,-48,71,-25,120,-29v38,-3,29,44,46,65v39,97,308,94,277,-43v-47,-93,-199,-87,-295,-127v-86,-36,-156,-131,-112,-246v35,-90,123,-142,242,-142v166,0,275,57,294,204v-5,44,-72,24,-119,24v-46,0,-30,-60,-64,-78v-63,-55,-244,-37,-212,72v4,14,13,24,23,30","w":649},"T":{"d":"14,-622v5,-36,-15,-91,27,-91r502,0v36,-3,58,4,54,46v-3,31,10,83,-21,83r-172,2v-24,2,-22,39,-21,64r0,471v13,64,-60,41,-115,46v-37,3,-40,-17,-40,-54r-2,-508v-6,-24,-29,-20,-57,-20r-93,0v-35,3,-68,2,-62,-39","w":611,"k":{"y":111,"w":111,"u":92,"s":111,"r":92,"o":111,"e":111,"c":111,"a":111,"A":92,";":111,":":111,".":111,"-":129,",":111}},"U":{"d":"498,-3v-215,61,-432,-22,-432,-246r0,-439v4,-48,84,-25,134,-25v24,0,21,29,21,53r2,423v0,111,125,145,227,108v62,-22,68,-99,68,-187r0,-333v-3,-36,-3,-71,39,-65v48,7,117,-19,117,34r-2,436v-9,132,-68,211,-174,241","w":741},"V":{"d":"4,-684v-9,-51,69,-20,103,-29v25,-1,46,0,53,21r138,433v2,15,22,31,28,11r146,-447v16,-34,85,-12,134,-18v28,-3,23,27,17,45r-218,650v-23,33,-97,18,-153,18v-47,0,-45,-55,-56,-90","w":630,"k":{"y":18,"u":37,"r":37,"o":55,"i":18,"e":55,"a":55,"A":46,";":46,":":46,".":129,"-":55,",":129}},"W":{"d":"184,-24r-174,-659v-8,-53,73,-22,124,-30v46,9,39,71,50,117r76,318v1,12,20,25,24,5r111,-423v15,-31,81,-12,127,-16v44,9,39,71,49,112r82,326v2,9,9,24,20,15v45,-136,69,-290,107,-432v11,-38,78,-22,126,-22v49,0,16,62,8,91r-164,603v-15,34,-89,12,-137,17v-49,-14,-42,-86,-55,-136r-76,-297v0,-16,-21,-25,-25,-5r-105,422v-16,33,-91,11,-136,17v-16,-3,-27,-6,-32,-23","w":944,"k":{"u":18,"r":18,"o":57,"e":57,"a":37,"A":24,";":18,":":18,".":74,",":74}},"X":{"d":"33,-706v35,-14,94,-6,143,-6v33,0,40,32,53,53r95,151v29,21,44,-24,56,-44r88,-139v21,-39,99,-21,156,-21v20,0,13,24,5,32r-197,298v-7,17,8,32,15,43r207,313v15,22,-12,28,-35,25v-50,-6,-124,15,-146,-21r-127,-201v-28,-27,-46,24,-59,44r-101,156v-20,39,-93,16,-150,23v-33,3,-24,-31,-9,-45r203,-305v24,-49,-24,-84,-48,-119r-144,-212v-1,-6,-11,-16,-5,-25","w":667},"Y":{"d":"384,-2v-55,-7,-128,28,-129,-41r-2,-231v-74,-146,-165,-273,-243,-414v-10,-16,4,-27,19,-26v53,5,129,-17,153,23r136,231v22,31,43,-17,52,-32r116,-196v19,-45,97,-21,158,-26v24,-2,17,23,10,35r-232,383v-25,51,-8,146,-12,220v-2,31,9,78,-26,74","w":667,"k":{"v":55,"u":74,"q":92,"p":74,"o":111,"i":37,"e":111,"a":92,"A":74,";":92,":":92,".":139,"-":111,",":139}},"Z":{"d":"377,-581v-95,-8,-204,5,-301,-2v-38,-3,-22,-64,-22,-106v0,-16,11,-24,27,-24r488,0v64,-12,45,68,42,121v-91,124,-196,234,-291,354v-23,30,-53,53,-70,89v-2,29,49,18,82,18r252,0v53,-10,36,47,40,93v5,61,-79,37,-133,37r-439,1v-41,1,-25,-51,-28,-91v-3,-51,29,-67,52,-95r302,-360v7,-9,20,-33,-1,-35","w":648},"[":{"d":"242,70v45,0,89,-15,89,45v0,36,5,65,-39,65r-158,0v-30,1,-65,6,-65,-29r0,-857v0,-16,11,-24,26,-24r197,-1v49,-7,39,39,39,83v0,56,-96,4,-120,44r-2,628v-2,28,4,46,33,46","w":333},"\\":{"d":"113,-702r257,692v8,36,-39,26,-72,26v-57,0,-44,-71,-69,-108r-229,-617v-1,-36,74,-23,101,-13v5,3,9,10,12,20","w":371},"]":{"d":"91,-620v-45,0,-99,14,-89,-45v-2,-35,-3,-74,39,-65r158,0v30,-1,65,-6,65,29r0,857v0,16,-11,24,-26,24r-196,1v-49,7,-40,-39,-40,-83v0,-69,122,26,122,-78r0,-594v2,-28,-4,-46,-33,-46","w":333},"^":{"d":"192,-344v-6,40,-104,41,-118,13v43,-123,104,-229,152,-347v15,-34,75,-20,121,-20v37,0,40,45,53,73r122,270v7,14,13,44,-18,39v-34,2,-84,9,-92,-25r-102,-223v-27,-13,-35,33,-45,55","w":600},"_":{"d":"454,74v42,-14,61,48,17,48r-441,1v-34,6,-42,-48,-9,-48","w":500},"`":{"d":"-12,-692v-17,-9,-11,-31,11,-29v51,4,116,-14,131,32v19,31,43,57,58,92v-1,29,-78,19,-94,3","w":259},"a":{"d":"516,-88v-2,39,33,96,-32,88v-34,-4,-82,10,-96,-16v-22,-40,-58,15,-91,16v-31,10,-67,12,-108,12v-121,0,-191,-112,-141,-225v40,-89,177,-79,282,-103v25,-6,46,-25,45,-58v-2,-82,-159,-77,-178,-17v-4,47,-84,35,-134,30v-41,-142,203,-205,357,-150v64,22,96,69,96,161r0,262xm375,-185v13,-92,-81,-38,-141,-33v-58,5,-86,99,-28,128v43,22,118,8,141,-22v14,-19,24,-43,28,-73","w":574},"b":{"d":"194,-531v2,24,-6,60,20,55v44,-40,131,-65,211,-42v159,46,184,332,83,463v-57,74,-232,88,-298,18v-33,-16,-9,49,-63,37r-48,0v-37,6,-45,-14,-45,-50r0,-633v-2,-43,54,-24,91,-29v51,-7,49,26,49,72r0,109xm306,-423v-150,-2,-159,312,-8,330v150,18,170,-225,82,-305v-17,-16,-41,-25,-74,-25","w":611},"c":{"d":"60,-138v-69,-184,28,-392,230,-392v139,0,227,54,250,166v10,46,-64,22,-110,28v-40,-4,-32,-55,-63,-70v-37,-28,-114,-16,-143,14v-82,86,-50,354,120,291v36,-13,52,-44,65,-81v10,-29,75,-15,111,-15v44,0,7,68,-2,90v-41,99,-201,150,-327,99v-64,-26,-107,-66,-131,-130","w":574},"d":{"d":"437,-711v54,3,138,-26,121,53r0,628v1,47,-64,26,-110,30v-30,4,-15,-56,-49,-36v-43,52,-160,56,-232,28v-162,-64,-167,-395,-30,-484v56,-36,182,-51,235,-4v12,5,21,25,39,18v19,-54,-4,-159,11,-223v3,-5,8,-9,15,-10xm292,-423v-147,1,-146,256,-49,315v40,24,120,15,140,-19v57,-57,51,-231,-15,-275v-19,-12,-43,-21,-76,-21","w":611},"e":{"d":"378,1v-234,65,-410,-128,-329,-367v39,-114,170,-198,323,-152v107,32,159,120,171,255v4,47,-43,38,-86,38r-269,2v-32,17,-1,71,10,89v33,55,162,51,196,1v14,-36,86,-31,126,-21v13,24,-10,50,-22,68v-29,46,-63,71,-120,87xm343,-313v28,1,64,2,51,-33v-14,-95,-176,-103,-210,-18v-12,18,-13,51,21,51r138,0","w":574},"f":{"d":"36,-517v32,2,51,-5,50,-35v-4,-112,70,-164,184,-161v31,1,62,1,62,35v0,41,7,78,-44,70v-49,-8,-73,38,-57,81v23,27,114,-18,92,79v1,35,-43,21,-76,26v-38,6,-21,71,-21,113r-1,277v5,47,-53,27,-93,31v-32,4,-47,-6,-47,-40r-2,-361v-5,-44,-96,11,-83,-66v-2,-32,5,-51,36,-49","w":333,"k":{"f":18}},"g":{"d":"440,-516v57,1,111,-18,110,46r-4,487v-21,143,-164,199,-327,171v-77,-13,-136,-52,-157,-124v-15,-52,64,-30,114,-33v33,7,31,43,62,55v24,15,74,17,104,9v59,-15,87,-93,68,-162v-32,-6,-50,40,-88,42v-275,96,-378,-332,-176,-473v62,-43,197,-41,238,14v6,7,24,18,29,3v5,-15,7,-35,27,-35xm286,-424v-140,0,-142,278,-13,301v156,28,183,-206,89,-282v-17,-13,-43,-19,-76,-19","w":611},"h":{"d":"210,-467v56,-72,240,-87,294,3v59,97,20,277,34,428v5,50,-51,30,-95,36v-60,8,-42,-50,-46,-102v-10,-131,50,-333,-109,-315v-141,16,-93,228,-93,385v0,52,-69,32,-118,32v-22,0,-23,-20,-22,-43r-1,-632v-6,-58,63,-33,116,-37v33,-3,24,44,25,77v2,53,-5,118,5,163v2,4,5,5,10,5","w":593},"i":{"d":"76,-712v48,3,123,-21,123,30r0,58v-3,45,-74,25,-119,25v-30,0,-20,-47,-21,-77v-1,-19,3,-32,17,-36xm80,-515v54,1,119,-21,119,41r0,419v4,40,-6,54,-47,54r-56,0v-32,4,-37,-16,-37,-47r0,-442v0,-16,8,-23,21,-25","w":258},"j":{"d":"67,-636v3,-32,-9,-80,26,-77v43,4,116,-21,115,31r-1,62v-4,37,-63,18,-100,22v-29,4,-42,-10,-40,-38xm68,-462v-3,-31,0,-55,32,-55r84,1v32,2,24,47,24,78r-2,494v-5,98,-81,120,-182,125v-46,2,-42,-33,-42,-75v0,-20,2,-41,22,-40v50,2,64,-33,64,-86r0,-442","w":278},"k":{"d":"67,-660v-1,-27,-4,-56,26,-53v47,4,115,-20,115,36r-1,306v1,29,32,16,41,-1r128,-132v30,-20,102,-13,148,-10v23,25,-30,46,-42,67r-100,97v-37,37,14,79,33,107r142,215v6,9,4,25,-9,25v-46,-1,-134,16,-157,-21r-122,-192v-35,-7,-63,32,-62,81r1,95v6,55,-55,36,-105,40v-33,3,-36,-18,-36,-51r0,-609","w":574},"l":{"d":"59,-645v1,-29,-8,-71,27,-68v34,3,82,-6,106,7v15,30,7,88,7,131r1,539v5,50,-54,29,-99,35v-66,8,-42,-77,-42,-133r0,-511","w":258},"m":{"d":"59,-413v5,-47,-23,-110,48,-103v40,4,88,-9,87,39v11,22,35,-7,41,-13v55,-51,202,-52,243,8v12,17,34,32,51,8v41,-59,168,-71,242,-30v116,63,64,289,77,468v4,49,-54,31,-98,36v-57,7,-42,-50,-43,-101r-4,-248v-8,-49,-46,-77,-102,-68v-110,18,-70,178,-78,297r0,94v-3,43,-69,26,-113,26v-49,0,-27,-83,-27,-129r-2,-212v4,-93,-137,-97,-165,-29v-35,84,-17,221,-17,341v0,47,-68,26,-115,29v-26,2,-26,-25,-25,-52r0,-361","w":906},"n":{"d":"55,-422v3,-46,-18,-101,48,-94v39,4,89,-11,87,39v11,24,32,-7,41,-12v44,-42,151,-50,216,-23v128,53,81,277,90,451v2,38,1,65,-45,61v-50,-4,-95,12,-95,-46r0,-219v4,-93,-15,-166,-115,-152v-118,17,-80,181,-87,308r0,79v1,44,-56,27,-96,30v-28,2,-45,-5,-45,-34","w":593},"o":{"d":"60,-137v-70,-189,28,-394,231,-392v181,2,270,96,281,267v15,223,-216,337,-410,241v-49,-24,-82,-63,-102,-116xm428,-216v13,-112,-19,-216,-136,-207v-94,7,-124,98,-112,203v9,78,47,135,136,128v71,-5,104,-54,112,-124","w":611},"p":{"d":"434,-512v172,57,182,398,41,490v-64,42,-200,44,-247,-7v-7,-7,-27,-21,-31,-3v-12,60,7,147,-9,206v-24,16,-75,6,-115,7v-23,-6,-19,-27,-19,-54r0,-587v-4,-34,2,-60,42,-54v32,5,82,-12,90,18v-1,16,15,32,28,17v42,-48,148,-57,220,-33xm338,-420v-153,-30,-176,175,-118,282v28,51,137,62,179,11v51,-60,48,-215,-7,-265v-13,-12,-30,-23,-54,-28","w":611},"q":{"d":"446,-516v57,2,125,-20,110,53r0,586v1,32,1,61,-34,57v-47,-5,-106,17,-106,-34v0,-59,4,-127,-3,-181v-25,-20,-44,24,-71,29v-44,21,-123,18,-171,2v-162,-53,-179,-371,-55,-471v55,-68,227,-72,282,-5v31,19,16,-38,48,-36xm338,-418v-155,-48,-203,159,-134,279v30,52,137,58,178,10v48,-55,49,-204,0,-257v-12,-13,-25,-26,-44,-32","w":611},"r":{"d":"54,-395v4,-54,-20,-131,43,-121v39,6,97,-18,91,42v-3,26,23,27,32,8v30,-33,69,-58,127,-63v42,-4,39,33,39,73v0,30,3,62,-32,58v-122,-13,-159,76,-159,199r0,149v13,66,-58,49,-119,49v-38,0,-22,-71,-22,-112r0,-282","w":389,"k":{"q":18,"o":18,"n":-18,"g":28,"e":18,"d":18,"c":18,".":92,"-":55,",":92}},"s":{"d":"44,-388v9,-189,445,-197,445,-1v0,38,-59,19,-97,23v-44,4,-39,-49,-74,-61v-50,-18,-156,-10,-129,56v78,97,328,14,318,225v-8,167,-256,191,-391,124v-44,-22,-82,-68,-81,-133v16,-24,75,-9,114,-10v23,9,19,42,40,55v47,52,203,33,172,-54v-74,-101,-327,-19,-317,-224","w":537},"t":{"d":"321,1v-123,15,-227,-6,-227,-135r-1,-267v-6,-47,-97,15,-85,-69v-8,-46,24,-46,64,-46v43,-12,12,-90,24,-140v12,-25,60,-11,93,-14v31,-3,45,5,45,40r0,79v-6,43,40,36,79,36v33,-1,28,46,24,75v-6,46,-104,-22,-103,66r2,222v1,34,28,52,66,47v47,-7,36,43,36,83v0,12,-6,19,-17,23","w":352},"u":{"d":"55,-449v0,-28,-9,-66,25,-66r75,0v59,-9,35,65,40,116v11,124,-43,303,94,303v158,0,97,-224,108,-392v3,-45,68,-27,115,-27v44,0,25,76,25,118r0,372v-3,43,-69,21,-113,24v-26,2,-11,-53,-40,-45v-46,55,-163,78,-246,39v-119,-56,-83,-272,-83,-442","w":593},"v":{"d":"14,-489v-4,-49,70,-22,115,-27v33,-3,35,39,42,63r79,252v13,22,26,-2,30,-16r87,-279v12,-33,72,-17,117,-20v47,18,-11,84,-12,121r-131,379v-20,31,-86,9,-137,15v-46,-5,-44,-61,-57,-99","w":520,"k":{".":74,",":74}},"w":{"d":"20,-475v-25,-58,53,-38,92,-42v48,-5,50,28,60,63r68,245v5,18,22,9,24,-4r67,-270v3,-51,72,-33,125,-33v38,0,28,55,42,84r53,208v2,26,23,31,30,6r73,-266v5,-52,80,-30,134,-31v27,16,-4,54,-6,77r-134,420v-16,28,-66,12,-108,16v-72,7,-45,-72,-73,-123r-42,-159v-2,-15,-16,-43,-29,-24v-31,92,-46,197,-76,290v-18,30,-100,16,-145,11v-20,-23,-26,-63,-36,-95","w":814,"k":{".":55,",":55}},"x":{"d":"32,-505v25,-23,83,-7,128,-10v46,9,50,61,78,88v8,21,33,44,52,15r60,-89v23,-26,90,-13,138,-13v30,16,-12,45,-19,63r-117,170v-1,35,26,53,42,77r125,182v7,18,-12,23,-30,21v-37,-2,-79,2,-112,-4v-35,-36,-61,-84,-89,-127v-10,-16,-27,-22,-38,-5r-80,119v-21,30,-99,16,-146,15v-22,-28,18,-57,34,-80r114,-169v18,-26,-8,-52,-20,-69r-120,-175v-2,-3,-1,-6,0,-9","w":537},"y":{"d":"45,87v-2,-45,55,-14,93,-28v85,-31,18,-149,-2,-203r-128,-344v-13,-51,65,-23,114,-30v49,7,38,73,60,110r70,208v13,21,26,-3,30,-16r92,-284v14,-32,79,-17,124,-17v30,0,11,40,5,56r-210,555v-26,74,-138,101,-238,76v-16,-15,-8,-53,-10,-83","w":519,"k":{".":74,",":74}},"z":{"d":"43,-434v-1,-35,-9,-82,26,-82r365,0v57,-11,45,60,39,106v-75,103,-175,182,-247,289v4,22,41,15,66,15r147,0v34,-2,57,0,57,40v0,38,4,75,-44,65r-406,0v-42,-2,-29,-101,-9,-123r227,-254v9,-7,13,-26,0,-29v-56,-14,-149,5,-211,-8v-6,-3,-9,-10,-10,-19","w":519},"{":{"d":"83,-557v0,-106,40,-165,126,-174v47,7,127,-21,123,33r-1,50v1,25,-21,27,-45,27v-138,0,14,273,-125,335v-18,29,40,36,47,64v26,44,16,125,16,192v0,66,14,99,83,99v37,0,22,49,24,84v3,39,-55,24,-92,26v-112,6,-155,-60,-156,-175r-2,-167v-8,-45,-47,-57,-81,-75v-12,-20,-15,-82,18,-86v85,-11,65,-131,65,-233","w":333},"|":{"d":"130,212v-37,-3,-71,9,-71,-38r0,-872v2,-37,-13,-88,32,-87r54,1v27,5,19,47,19,77r0,861v2,30,2,61,-34,58","w":223},"}":{"d":"249,6v0,106,-40,165,-126,174v-47,-7,-127,22,-123,-32r1,-52v-1,-25,21,-26,45,-26v138,0,-14,-273,125,-335v18,-29,-40,-36,-47,-64v-26,-44,-16,-125,-16,-192v0,-66,-14,-99,-83,-99v-37,0,-22,-49,-24,-84v-3,-39,55,-24,92,-26v112,-6,155,60,156,175r2,167v9,37,34,58,70,68v27,8,29,87,-7,92v-85,12,-65,132,-65,234","w":333},"~":{"d":"439,-170v-114,25,-157,-84,-267,-60v-27,6,-39,30,-58,46v-28,1,-30,-41,-41,-65v11,-82,126,-110,204,-69v58,30,156,76,197,3v9,-15,31,-9,34,6v10,21,30,55,10,79v-21,26,-43,52,-79,60","w":600},"\u00a0":{"w":278}}});
